/*
 * Copyright (c) 2026 EdgeImpulse Inc.
 *
 * Generated by Edge Impulse and licensed under the applicable Edge Impulse
 * Terms of Service. Community and Professional Terms of Service
 * (https://edgeimpulse.com/legal/terms-of-service) or Enterprise Terms of
 * Service (https://edgeimpulse.com/legal/enterprise-terms-of-service),
 * according to your product plan subscription (the “License”).
 *
 * This software, documentation and other associated files (collectively referred
 * to as the “Software”) is a single SDK variation generated by the Edge Impulse
 * platform and requires an active paid Edge Impulse subscription to use this
 * Software for any purpose.
 *
 * You may NOT use this Software unless you have an active Edge Impulse subscription
 * that meets the eligibility requirements for the applicable License, subject to
 * your full and continued compliance with the terms and conditions of the License,
 * including without limitation any usage restrictions under the applicable License.
 *
 * If you do not have an active Edge Impulse product plan subscription, or if use
 * of this Software exceeds the usage limitations of your Edge Impulse product plan
 * subscription, you are not permitted to use this Software and must immediately
 * delete and erase all copies of this Software within your control or possession.
 * Edge Impulse reserves all rights and remedies available to enforce its rights.
 *
 * Unless required by applicable law or agreed to in writing, the Software is
 * distributed on an "AS IS" BASIS, WITHOUT WARRANTIES OR CONDITIONS OF ANY KIND,
 * either express or implied. See the License for the specific language governing
 * permissions, disclaimers and limitations under the License.
 */
// Generated on: 22.05.2026 19:40:21

#include <stdio.h>
#include <stdlib.h>
#include "edge-impulse-sdk/tensorflow/lite/c/builtin_op_data.h"
#include "edge-impulse-sdk/tensorflow/lite/c/common.h"
#include "edge-impulse-sdk/tensorflow/lite/micro/micro_mutable_op_resolver.h"
#include "edge-impulse-sdk/porting/ei_classifier_porting.h"

#if EI_CLASSIFIER_PRINT_STATE
#if defined(__cplusplus) && EI_C_LINKAGE == 1
extern "C" {
    extern void ei_printf(const char *format, ...);
}
#else
extern void ei_printf(const char *format, ...);
#endif
#endif

#define STRINGIZE(x) #x
#define STRINGIZE_VALUE_OF(x) STRINGIZE(x)

#if defined (__GNUC__)  /* GNU compiler */
#define ALIGN(X) __attribute__((aligned(X)))
#define DEFINE_SECTION(x) __attribute__((section(x)))
#elif defined (_MSC_VER)
#define ALIGN(X) __declspec(align(X))
#elif defined (__TASKING__) /* TASKING Compiler */
#define ALIGN(X) __align(X)
#define DEFINE_SECTION(x) __attribute__((section(x)))
#elif defined (__ARMCC_VERSION) /* Arm Compiler */
#define ALIGN(X) __ALIGNED(x)
#define DEFINE_SECTION(x) __attribute__((section(x)))
#elif defined (__ICCARM__) /* IAR Compiler */
#define ALIGN(x) __attribute__((aligned(x)))
#define DEFINE_SECTION(x) __attribute__((section(x)))
#elif defined (__clang__) /* LLVM/Clang Compiler */
#define ALIGN(X) __ALIGNED(x)
#define DEFINE_SECTION(x) __attribute__((section(x)))
#endif

#if defined(EI_MODEL_SECTION) && (defined(__GNUC__) || defined(__clang__))
#define MODEL_SECTION(X) __attribute__((section(STRINGIZE_VALUE_OF(X))))
#else
#define MODEL_SECTION(X)
#endif

#ifndef EI_MAX_SCRATCH_BUFFER_COUNT
#ifndef CONFIG_IDF_TARGET_ESP32S3
#define EI_MAX_SCRATCH_BUFFER_COUNT 4
#else
#define EI_MAX_SCRATCH_BUFFER_COUNT 4
#endif // CONFIG_IDF_TARGET_ESP32S3
#endif // EI_MAX_SCRATCH_BUFFER_COUNT

#ifndef EI_MAX_OVERFLOW_BUFFER_COUNT
#define EI_MAX_OVERFLOW_BUFFER_COUNT 10
#endif // EI_MAX_OVERFLOW_BUFFER_COUNT

using namespace tflite;
using namespace tflite::ops;
using namespace tflite::ops::micro;

namespace {

#if defined(EI_CLASSIFIER_ALLOCATION_STATIC_HIMAX) || defined(EI_CLASSIFIER_ALLOCATION_STATIC_HIMAX_GNU)
constexpr int kTensorArenaSize = 1568;
#else
constexpr int kTensorArenaSize = 544;
#endif

#if defined(EI_CLASSIFIER_ALLOCATION_STATIC)
#if defined (EI_TENSOR_ARENA_LOCATION)
uint8_t tensor_arena[kTensorArenaSize] ALIGN(16) DEFINE_SECTION(STRINGIZE_VALUE_OF(EI_TENSOR_ARENA_LOCATION));
#else
uint8_t tensor_arena[kTensorArenaSize] ALIGN(16);
#endif
#elif defined(EI_CLASSIFIER_ALLOCATION_STATIC_HIMAX)
#pragma Bss(".tensor_arena")
uint8_t tensor_arena[kTensorArenaSize] ALIGN(16);
#pragma Bss()
#elif defined(EI_CLASSIFIER_ALLOCATION_STATIC_HIMAX_GNU)
uint8_t tensor_arena[kTensorArenaSize] ALIGN(16) __attribute__((section(".tensor_arena")));
#else
#define EI_CLASSIFIER_ALLOCATION_HEAP 1
uint8_t* tensor_arena = NULL;
#endif

static uint8_t* tensor_boundary;
static uint8_t* current_location;

template <int SZ, class T> struct TfArray {
  int sz; T elem[SZ];
};

enum used_operators_e {
  OP_FULLY_CONNECTED, OP_SOFTMAX,  OP_LAST
};

struct TensorInfo_t { // subset of TfLiteTensor used for initialization from constant memory
  TfLiteAllocationType allocation_type;
  void* data;
  TfLiteIntArray* dims;
  size_t bytes;
};

typedef struct {
  TfLiteTensor tensor;
  int16_t index;
} TfLiteTensorWithIndex;

typedef struct {
  TfLiteEvalTensor tensor;
  int16_t index;
} TfLiteEvalTensorWithIndex;

TfLiteContext ctx{};
static const int MAX_TFL_TENSOR_COUNT = 4;
static TfLiteTensorWithIndex tflTensors[MAX_TFL_TENSOR_COUNT];
static const int MAX_TFL_EVAL_COUNT = 4;
static TfLiteEvalTensorWithIndex tflEvalTensors[MAX_TFL_EVAL_COUNT];
TfLiteRegistration registrations[OP_LAST];

namespace g0 {
const TfArray<2, int> tensor_dimension0 = { 2, { 1,35 } };
const MODEL_SECTION(EI_MODEL_SECTION) ALIGN(16) float tensor_data1[10] = { 0.35201355814933777, 0.58012127876281738, 0.014027572236955166, 0.61163526773452759, 0.59814912080764771, 0.48796215653419495, 0.40187051892280579, -0.47916772961616516, 0.014171605929732323, -0.51543152332305908, };
const TfArray<1, int> tensor_dimension1 = { 1, { 10 } };
const MODEL_SECTION(EI_MODEL_SECTION) ALIGN(16) float tensor_data2[20] = { 0.37861359119415283, 0.058298051357269287, 0.39077639579772949, 0.042498305439949036, -0.60469943284988403, -0.077211149036884308, -0.55605167150497437, 0.061256695538759232, -0.78914070129394531, 0.68462204933166504, 0.44522851705551147, 0.73750025033950806, 0.19602219760417938, 0.18127314746379852, 0.41999480128288269, -0.095120936632156372, -0.31775179505348206, -0.062900371849536896, 0.47927078604698181, 0.043331887573003769, };
const TfArray<1, int> tensor_dimension2 = { 1, { 20 } };
const MODEL_SECTION(EI_MODEL_SECTION) ALIGN(16) float tensor_data3[4] = { 0.073498845100402832, -0.83675599098205566, -0.64393836259841919, 0.614737868309021, };
const TfArray<1, int> tensor_dimension3 = { 1, { 4 } };
const MODEL_SECTION(EI_MODEL_SECTION) ALIGN(16) float tensor_data4[20*35] = { 
  -0.0030863899737596512, -0.071300685405731201, -0.10397271811962128, 0.23886671662330627, 0.19949737191200256, -0.11785104870796204, 0.25355282425880432, -0.45550811290740967, -0.13707570731639862, -0.50687968730926514, -0.22042600810527802, 0.061474371701478958, -0.49422377347946167, -0.66488999128341675, -0.2739863395690918, 0.0079275844618678093, -0.18760351836681366, -0.10678195208311081, -0.013989611528813839, -0.056721068918704987, 0.62609672546386719, 0.10535752773284912, 0.25316733121871948, 0.16344985365867615, -0.091113761067390442, 0.17612923681735992, -0.18157356977462769, 0.15578776597976685, -0.049507465213537216, -0.1176813617348671, 0.10225649178028107, 0.088144794106483459, 0.0031262689735740423, -0.42979946732521057, -0.26178121566772461, 
  -0.27324169874191284, -0.1487845778465271, 0.082865238189697266, -0.10455439984798431, 0.38010689616203308, 0.05672149732708931, 0.355693519115448, 1.1065342426300049, 1.0125609636306763, 1.3715734481811523, 0.82202434539794922, 0.48675182461738586, -0.42028865218162537, 0.10913308709859848, -0.076672784984111786, -0.31603705883026123, 0.069281086325645447, -0.02933272160589695, 0.12613053619861603, -0.22118477523326874, 0.026534911245107651, -0.041185386478900909, 0.1992303878068924, -0.058013599365949631, 0.10587512701749802, 0.001553755602799356, 0.03058227151632309, -0.22817032039165497, -0.056152872741222382, -0.2137029618024826, -0.032746020704507828, 0.23459331691265106, 0.22485361993312836, 0.35885635018348694, 0.72475475072860718, 
  0.05473625659942627, -0.060002785176038742, -0.11715762317180634, -0.10963670909404755, -0.30006518959999084, -0.20226652920246124, -0.367320716381073, 0.20183941721916199, 0.28407725691795349, -0.11119750887155533, -0.28909420967102051, -0.27366542816162109, -0.18340402841567993, 0.35121741890907288, 0.10267094522714615, 0.34604924917221069, 0.25352498888969421, 0.35937163233757019, 0.00084175140364095569, 0.044025231152772903, 0.2309291660785675, -0.19842636585235596, 0.22990894317626953, -0.083716124296188354, 0.098819606006145477, -0.0032790664117783308, 0.48490187525749207, 0.2259993851184845, -0.32313382625579834, -0.3660392165184021, -0.25589326024055481, 0.038213867694139481, 0.037615567445755005, -0.18386319279670715, -0.38735631108283997, 
  -0.23873125016689301, -0.14208030700683594, -0.26977092027664185, -0.089628137648105621, -0.24353821575641632, 0.11534751206636429, -0.34417387843132019, 0.42394736409187317, 0.25943812727928162, -0.079478248953819275, 0.34170088171958923, 0.21623039245605469, -0.13981446623802185, 0.052330970764160156, -0.26126739382743835, -0.47622251510620117, -0.53014439344406128, -0.47669997811317444, 0.098385468125343323, 0.41223514080047607, 0.077843964099884033, -0.048212002962827682, -0.18149419128894806, -0.16300097107887268, 0.018507318571209908, 0.15294073522090912, 0.046826735138893127, -0.11315333098173141, 0.052489399909973145, -0.025473589077591896, -0.46487262845039368, -0.025004249066114426, 0.53124165534973145, -0.11936300247907639, 0.28878024220466614, 
  0.16174432635307312, 0.011669901199638844, 0.11521536111831665, -0.011292437091469765, -0.45090845227241516, 0.0019491073908284307, 0.22294571995735168, 0.072023734450340271, -0.025256587192416191, 0.2310856431722641, 0.00042135166586376727, -0.10267182439565659, 0.068929031491279602, -0.12610097229480743, 0.169314906001091, 0.43031769990921021, 0.41476339101791382, 0.47928598523139954, -0.0006014039390720427, -0.0076142163015902042, -0.16567926108837128, 0.25657010078430176, 0.11076296865940094, 0.13403008878231049, 0.067140780389308929, 0.00018238159827888012, -0.18775856494903564, -0.25295734405517578, -0.1327984482049942, 0.023147495463490486, 0.32096308469772339, 0.070639409124851227, 0.14888623356819153, 0.1642090231180191, 0.09880298376083374, 
  -0.12612934410572052, 0.099697664380073547, -0.051475021988153458, -0.043984629213809967, -0.10202744603157043, -0.30860212445259094, 0.098789438605308533, 0.28915408253669739, -0.16550874710083008, 0.041099753230810165, -0.28585150837898254, -0.68883740901947021, -0.20291522145271301, 0.28025838732719421, 0.067792557179927826, 0.050600294023752213, -0.13400186598300934, 0.089247927069664001, -0.19751936197280884, 0.0064776637591421604, -0.8161698579788208, -0.23245811462402344, -0.083714589476585388, -0.13932310044765472, 0.095417127013206482, -0.44899845123291016, 0.09813341498374939, -0.16309401392936707, -0.12373678386211395, 0.37597170472145081, -0.026595607399940491, 0.049395360052585602, 0.25821509957313538, 0.084317445755004883, 0.11544599384069443, 
  0.13040949404239655, 0.04965633898973465, 0.0078557999804615974, -0.073748484253883362, -0.197611004114151, -0.008119530975818634, 0.37395238876342773, -0.071272514760494232, -0.32957372069358826, -0.29342657327651978, -0.34131518006324768, -0.062807232141494751, -0.04198126494884491, -0.1940767765045166, -0.12019387632608414, -0.25888574123382568, -0.35535949468612671, -0.32019767165184021, 0.13161171972751617, 0.44483613967895508, -0.19850867986679077, 0.13497503101825714, -0.027289586141705513, 0.27818331122398376, -0.021868288516998291, 0.052596688270568848, -0.07370421290397644, -0.51417195796966553, 0.30286493897438049, 0.11600266396999359, 0.19421902298927307, -0.20016077160835266, 0.20912022888660431, 0.26887330412864685, 0.11934792995452881, 
  0.27024245262145996, -0.0042856284417212009, 0.080597348511219025, 0.241382896900177, 0.31596723198890686, -0.33952870965003967, 0.090332858264446259, 0.14432068169116974, -0.09779801219701767, 0.29534614086151123, -0.010909579694271088, 0.17554472386837006, -0.1531817615032196, 0.028630541637539864, -0.71161472797393799, -0.7114022970199585, -0.58165472745895386, -0.66166263818740845, -0.0076436041854321957, 0.15867768228054047, 0.14221413433551788, -0.03213227167725563, -0.066599711775779724, -0.016542289406061172, 0.035915698856115341, 0.38474404811859131, -0.068621665239334106, 0.23252812027931213, -0.17669808864593506, -0.063317477703094482, -0.0858050137758255, 0.055950067937374115, -0.15035563707351685, -0.64139741659164429, -0.33767947554588318, 
  0.053908944129943848, 0.12788762152194977, 0.13624031841754913, -0.047044239938259125, -0.25856626033782959, 0.11842293292284012, 0.53408980369567871, 0.072654150426387787, 0.18988202512264252, 0.1676059365272522, 0.21589107811450958, 0.091127336025238037, 0.63726127147674561, -0.16007228195667267, 0.085538677871227264, -0.040216352790594101, 0.13319343328475952, -0.012664635665714741, 0.061636265367269516, -0.0049767503514885902, -0.067450337111949921, 0.19502799212932587, 0.21356959640979767, 0.19299100339412689, 0.18671958148479462, -0.34422239661216736, 0.042570751160383224, -0.1003812849521637, 0.51151758432388306, 0.014676401391625404, 0.38461640477180481, 0.028852440416812897, 0.091140128672122955, -0.00024819833924993873, -0.12830190360546112, 
  -0.28486353158950806, -0.040394525974988937, -0.34413418173789978, -0.21353378891944885, -0.2350185215473175, -0.031018435955047607, -0.78771770000457764, -0.31825599074363708, -0.46422874927520752, -0.61772185564041138, -0.58286559581756592, 0.026858123019337654, -0.57497751712799072, 0.32722458243370056, -0.25790110230445862, 0.12450547516345978, -0.11819073557853699, 0.05395081639289856, 0.20794814825057983, -0.16693171858787537, 0.234124556183815, 0.46280369162559509, 0.30454602837562561, 0.52482122182846069, 0.54890638589859009, -0.033767085522413254, 0.24116998910903931, 0.25594666600227356, -0.01587580144405365, 0.097542434930801392, -0.078037776052951813, -0.085904121398925781, -0.47303274273872375, -0.21009233593940735, -0.095759741961956024, 
  0.25064548850059509, 0.07355162501335144, 0.041973374783992767, -0.2334015965461731, -0.096123382449150085, -0.56884461641311646, -0.085967548191547394, -0.24562603235244751, -0.32340329885482788, -0.23761720955371857, -0.48665881156921387, 0.020225904881954193, -0.34598249197006226, -0.75634431838989258, -0.066795989871025085, -0.19470420479774475, -0.20355381071567535, -0.17259638011455536, 0.0061975284479558468, 0.2000633031129837, -0.38286548852920532, 0.12433771044015884, -0.31011158227920532, 0.10355330258607864, 0.17344991862773895, 0.097129188477993011, -0.09353356808423996, 0.13409222662448883, 0.068236403167247772, 0.05778159573674202, -0.23023375868797302, -0.30086478590965271, -0.26405951380729675, -0.28245922923088074, 0.4051697850227356, 
  -0.014403324574232101, 0.036487065255641937, 0.179403156042099, -0.15676794946193695, -0.057516243308782578, 0.054153785109519958, 0.024584686383605003, -0.10957369208335876, 0.20847994089126587, -0.034754768013954163, 0.27885112166404724, 0.49448412656784058, -0.16459979116916656, 0.3366827666759491, -0.30907225608825684, -0.069454967975616455, -0.29372552037239075, -0.32058572769165039, 0.027946533635258675, 0.053511634469032288, 0.31676408648490906, 0.53177726268768311, 0.86447525024414062, 0.60510265827178955, 0.67741477489471436, 0.15018051862716675, -0.097291432321071625, 0.056918010115623474, 0.18780407309532166, 0.028895929455757141, 0.027189396321773529, -0.085897766053676605, -0.048270300030708313, -0.18055114150047302, 0.092675007879734039, 
  -0.24592007696628571, -0.27667331695556641, -0.13317307829856873, -0.22541256248950958, -0.14927017688751221, 0.10887883603572845, -0.28432753682136536, -0.31082633137702942, -0.19347406923770905, 0.026933128014206886, -0.16505347192287445, -0.41720554232597351, -0.11532679200172424, 0.072039879858493805, -0.37399777770042419, -0.038036022335290909, -0.27164244651794434, -0.44821000099182129, 0.11060687154531479, 0.049077253788709641, 0.24467244744300842, -0.036067742854356766, -0.21808105707168579, 0.055239617824554443, 0.028740253299474716, -0.051203511655330658, 0.37581914663314819, 0.073946557939052582, -0.24986770749092102, -0.60966914892196655, -0.62017792463302612, -0.4762817919254303, -0.016429964452981949, 0.31423202157020569, -0.071776643395423889, 
  0.093670472502708435, -0.10965297371149063, -0.10285937041044235, 0.055406764149665833, 0.14558751881122589, 0.1324903815984726, 0.019347110763192177, 0.027215024456381798, -0.29151886701583862, -0.25206395983695984, -0.16213254630565643, -0.30632549524307251, 0.2521156370639801, -0.086498543620109558, -0.018408089876174927, 0.037058420479297638, -0.23914363980293274, 0.031919024884700775, -0.33656227588653564, -0.24501752853393555, -0.25980442762374878, -0.24130618572235107, -0.057022523134946823, -0.16008107364177704, -0.14655046164989471, -0.13877367973327637, -0.36954134702682495, 0.58027678728103638, -0.0093812309205532074, 0.07804359495639801, 0.01731528528034687, -0.19358648359775543, -0.40382713079452515, -0.23851805925369263, 0.21522152423858643, 
  0.056145593523979187, -0.28123170137405396, -0.19263915717601776, -0.072619304060935974, -0.10175009071826935, -0.29403966665267944, -0.52246707677841187, -0.44269359111785889, -0.30882567167282104, -0.45865368843078613, -0.31108585000038147, -0.063806377351284027, 0.095957465469837189, 0.27922427654266357, -0.41846999526023865, -0.38237905502319336, -0.44112062454223633, -0.13643273711204529, 0.16664518415927887, -0.010294522158801556, 0.3633856475353241, 0.29001772403717041, -0.006838048342615366, 0.25345420837402344, -0.17117138206958771, -0.12161058187484741, 0.43569621443748474, 0.21303184330463409, -0.36831709742546082, -0.68720638751983643, -0.24550338089466095, -0.75446468591690063, -0.44943442940711975, 0.13916474580764771, -0.87958532571792603, 
  0.10572168231010437, 0.21738968789577484, -0.025497281923890114, -0.050690706819295883, -0.13394774496555328, 0.24244248867034912, -0.27566099166870117, 0.61715483665466309, 0.59837889671325684, 0.68100923299789429, 0.52933818101882935, 0.12946450710296631, -0.30838379263877869, -0.018666042014956474, 0.31779849529266357, 0.30809825658798218, 0.15294666588306427, 0.23415978252887726, -0.014701873995363712, -0.048584934324026108, -0.11385036259889603, 0.069011673331260681, -0.17954139411449432, 0.082602106034755707, 0.0090372413396835327, 0.089830964803695679, 0.020979087799787521, -0.3702206015586853, 0.10811696201562881, 0.062382765114307404, 0.13265392184257507, -0.0032552294433116913, 0.055686943233013153, 0.06018572673201561, 0.047089148312807083, 
  0.063385680317878723, -0.020825592800974846, 0.012701121158897877, 0.064946845173835754, 0.35225892066955566, 0.17783926427364349, 0.66459387540817261, -0.49589651823043823, -0.19125452637672424, -0.58066040277481079, -0.59923762083053589, -0.015272022224962711, -0.039090976119041443, -0.23455177247524261, -0.21308495104312897, -0.025602895766496658, -0.25286754965782166, -0.18764704465866089, 0.045528411865234375, -0.069397598505020142, -0.27039563655853271, -0.031233012676239014, 0.061937436461448669, -0.05421404168009758, 0.1041092723608017, -0.44060760736465454, -0.57505643367767334, 0.040012285113334656, -0.16271013021469116, 0.19210690259933472, 0.079990357160568237, 0.059455744922161102, 0.19169385731220245, 0.061758536845445633, 0.29898926615715027, 
  -0.04384276270866394, 0.090019010007381439, 0.15504638850688934, 0.1141195222735405, 0.39685803651809692, -0.32406842708587646, -0.42076340317726135, 0.74726837873458862, 0.57363986968994141, 0.51395583152770996, 0.43312224745750427, 0.53226488828659058, 0.093609407544136047, 0.42972758412361145, -0.37090340256690979, -0.16992762684822083, -0.31879043579101562, -0.070589363574981689, 0.11335106194019318, -0.39166533946990967, 0.11982367932796478, -0.079153589904308319, -0.12684640288352966, 0.23103263974189758, -0.097138762474060059, 0.012697525322437286, 0.15060095489025116, 0.063036158680915833, 0.062808752059936523, -0.027636971324682236, 0.068907812237739563, -0.1023637056350708, 0.037678167223930359, -0.13537132740020752, -0.23064480721950531, 
  -0.045646693557500839, 0.092412278056144714, 0.31062960624694824, -0.063188478350639343, 0.30301129817962646, -0.0098807886242866516, 0.014165510423481464, -0.28138831257820129, -0.27463600039482117, -0.38592740893363953, -0.48291000723838806, -0.66068190336227417, -0.30113580822944641, -0.15380075573921204, -0.43934908509254456, -0.25756755471229553, -0.31400632858276367, -0.39361375570297241, -0.24706368148326874, -0.081105515360832214, -0.32279965281486511, 0.24481673538684845, -0.12071938812732697, 0.13642255961894989, -0.1039532795548439, 0.11136282235383987, -0.14098893105983734, -0.093409106135368347, -0.12720228731632233, -0.10741031169891357, 0.05540529265999794, -0.13341231644153595, -0.36269798874855042, -0.4308432936668396, 0.53939670324325562, 
  0.038782298564910889, 0.20412851870059967, -0.058406256139278412, -0.065164715051651001, 0.043186210095882416, -0.28149500489234924, 0.26884713768959045, -0.20559434592723846, 0.024973725900053978, -0.021790195256471634, -0.36128416657447815, 0.096138820052146912, 0.18539592623710632, -0.12515640258789062, -0.11286991089582443, -0.016728753224015236, -0.1490502655506134, -0.21129035949707031, -0.21227890253067017, 0.0019767165649682283, -0.10534261912107468, -0.22402438521385193, 0.099787056446075439, -0.21724344789981842, -0.026487153023481369, 0.04430413618683815, -0.41424605250358582, 0.035938803106546402, 0.16983966529369354, 0.32460439205169678, -0.13897599279880524, 0.10028894990682602, 0.031326048076152802, 0.13758009672164917, 0.25596657395362854, 
};
const TfArray<2, int> tensor_dimension4 = { 2, { 20,35 } };
const MODEL_SECTION(EI_MODEL_SECTION) ALIGN(16) float tensor_data5[10*20] = { 
  0.58516806364059448, -0.23726263642311096, 0.0087288348004221916, 0.035068642348051071, 0.98489660024642944, 0.28856396675109863, 0.35447078943252563, -0.278463214635849, -0.0054456214420497417, -0.012655623257160187, 0.52922224998474121, 0.0082431305199861526, 0.19907699525356293, 0.43433064222335815, 0.08061392605304718, -0.32129138708114624, 0.090668603777885437, -0.15179789066314697, 0.14697051048278809, -0.016445809975266457, 
  -0.22350357472896576, -0.6434330940246582, 0.33354979753494263, 0.27089181542396545, 0.32928252220153809, -0.56210172176361084, -0.2462635338306427, -0.11711886525154114, -0.37689882516860962, -0.10232293605804443, -0.11808138340711594, -0.46432775259017944, 0.10560434311628342, 0.22596202790737152, 0.16616889834403992, 0.29967835545539856, -0.38505908846855164, -0.097810491919517517, -0.15540193021297455, -0.28073552250862122, 
  -0.085963897407054901, -0.42539042234420776, 0.14984898269176483, 0.45349353551864624, -0.44718220829963684, -0.28476870059967041, -0.21781182289123535, 0.1235688328742981, -0.29165059328079224, -0.14457622170448303, 0.02556757815182209, 0.074270389974117279, 0.270751953125, -0.12295886129140854, 0.20811758935451508, -0.37072309851646423, 0.062818907201290131, -0.18054017424583435, -0.20805145800113678, -0.29793721437454224, 
  0.40010988712310791, -0.11204167455434799, 0.37799254059791565, -0.42889463901519775, -0.15058206021785736, 0.37345364689826965, -0.22430682182312012, -0.065419875085353851, -0.1816423237323761, 0.42080679535865784, 0.2928861677646637, 0.26932007074356079, -0.078519962728023529, 0.12846256792545319, -0.064590044319629669, -0.24239292740821838, -0.14416584372520447, -0.15851567685604095, 0.6340215802192688, 0.22162394225597382, 
  0.091096498072147369, 0.38275587558746338, 0.019820298999547958, -0.01043044775724411, -0.12896539270877838, 0.048411339521408081, 0.0049656662158668041, 0.28102573752403259, -0.17766803503036499, 0.33150574564933777, 0.016115004196763039, 0.50106894969940186, -0.085495345294475555, 0.27590981125831604, 0.10783287137746811, 0.037088129669427872, -0.26441127061843872, 0.49187374114990234, 0.21519695222377777, 0.13763968646526337, 
  0.10906821489334106, 0.15768414735794067, -0.36846062541007996, -0.32910564541816711, -0.095873914659023285, 0.047793600708246231, -0.091879956424236298, 0.42038241028785706, -0.24461860954761505, -0.081041954457759857, 0.29362639784812927, 0.65261614322662354, -0.62196570634841919, 0.46653258800506592, -0.2409205287694931, -0.20882716774940491, 0.042061332613229752, 0.32788246870040894, 0.49003815650939941, 0.21182507276535034, 
  0.47757256031036377, -0.04361351951956749, -0.26956957578659058, -0.44141092896461487, 0.032235618680715561, 0.65449708700180054, -0.034936334937810898, 0.037303067743778229, 0.0041276072151958942, -0.066682867705821991, 0.28881177306175232, 0.23149885237216949, -0.3591577410697937, 0.17109097540378571, -0.061960507184267044, -0.30248972773551941, 0.29456561803817749, -0.048807907849550247, 0.32094681262969971, -0.042509801685810089, 
  -0.16999119520187378, 0.29203292727470398, -0.21601289510726929, 0.48854696750640869, -0.0012073790421709418, 0.24692703783512115, 0.14975324273109436, -0.16214145720005035, 0.2651374340057373, -0.48313751816749573, -0.53785675764083862, 0.17066849768161774, -0.056787293404340744, -0.39354842901229858, -0.55290913581848145, 0.28028067946434021, 0.18612457811832428, 0.038169216364622116, -0.50677204132080078, 0.31010216474533081, 
  0.024975359439849854, 0.10907483845949173, 0.21139594912528992, 0.23492628335952759, 0.27441775798797607, -0.12475964426994324, -0.34649312496185303, -0.10083222389221191, -0.22143237292766571, -0.034735236316919327, 0.054750628769397736, 0.087519772350788116, -0.078153133392333984, -0.26063477993011475, -0.27953815460205078, 0.41250544786453247, -0.47186154127120972, 0.10696249455213547, -0.43046551942825317, -0.057660751044750214, 
  0.056855004280805588, -0.20818436145782471, -0.27990636229515076, 0.30435323715209961, 0.3807893693447113, 0.34529593586921692, -0.024899153038859367, -0.26634126901626587, 0.24417869746685028, -0.31963115930557251, -0.21286767721176147, -0.34541073441505432, -0.41520231962203979, -0.34180811047554016, -0.093764379620552063, -0.091015450656414032, 0.041410442441701889, 0.078042037785053253, -0.33043083548545837, 0.10834842920303345, 
};
const TfArray<2, int> tensor_dimension5 = { 2, { 10,20 } };
const MODEL_SECTION(EI_MODEL_SECTION) ALIGN(16) float tensor_data6[4*10] = { 
  0.26766014099121094, 0.66589730978012085, 0.75696337223052979, -0.26114159822463989, 0.26572811603546143, -1.1377136707305908, -0.88400977849960327, -0.1696716696023941, 0.35124063491821289, -0.13686327636241913, 
  0.32396656274795532, -0.66897618770599365, -0.058212272822856903, -0.3907497227191925, -0.64765465259552002, -0.60973501205444336, 0.52354192733764648, 0.30427196621894836, -0.46055865287780762, 0.48968297243118286, 
  -0.63829910755157471, 0.12212382256984711, -0.73766791820526123, -1.075120210647583, 0.25158941745758057, -0.31566724181175232, -0.091791436076164246, 0.27981856465339661, 0.55026763677597046, -0.53330546617507935, 
  0.23512223362922668, -0.082360841333866119, -0.4535127580165863, 0.3695468008518219, 0.16181761026382446, -0.20913350582122803, 0.57497245073318481, -0.26206937432289124, -0.39993372559547424, -0.58525437116622925, 
};
const TfArray<2, int> tensor_dimension6 = { 2, { 4,10 } };
const TfArray<2, int> tensor_dimension7 = { 2, { 1,20 } };
const TfArray<2, int> tensor_dimension8 = { 2, { 1,10 } };
const TfArray<2, int> tensor_dimension9 = { 2, { 1,4 } };
const TfLiteFullyConnectedParams opdata0 = { kTfLiteActRelu, kTfLiteFullyConnectedWeightsFormatDefault, false, false };
const TfArray<3, int> inputs0 = { 3, { 0,4,2 } };
const TfArray<1, int> outputs0 = { 1, { 7 } };
const TfLiteFullyConnectedParams opdata1 = { kTfLiteActRelu, kTfLiteFullyConnectedWeightsFormatDefault, false, false };
const TfArray<3, int> inputs1 = { 3, { 7,5,1 } };
const TfArray<1, int> outputs1 = { 1, { 8 } };
const TfLiteFullyConnectedParams opdata2 = { kTfLiteActNone, kTfLiteFullyConnectedWeightsFormatDefault, false, false };
const TfArray<3, int> inputs2 = { 3, { 8,6,3 } };
const TfArray<1, int> outputs2 = { 1, { 9 } };
const TfLiteSoftmaxParams opdata3 = { 1 };
const TfArray<1, int> inputs3 = { 1, { 9 } };
const TfArray<1, int> outputs3 = { 1, { 10 } };
};

TensorInfo_t tensorData[] = {
{ kTfLiteArenaRw, (int32_t*)(tensor_arena + 0), (TfLiteIntArray*)&g0::tensor_dimension0, 140, },
{ kTfLiteMmapRo, (int32_t*)g0::tensor_data1, (TfLiteIntArray*)&g0::tensor_dimension1, 40, },
{ kTfLiteMmapRo, (int32_t*)g0::tensor_data2, (TfLiteIntArray*)&g0::tensor_dimension2, 80, },
{ kTfLiteMmapRo, (int32_t*)g0::tensor_data3, (TfLiteIntArray*)&g0::tensor_dimension3, 16, },
{ kTfLiteMmapRo, (int32_t*)g0::tensor_data4, (TfLiteIntArray*)&g0::tensor_dimension4, 2800, },
{ kTfLiteMmapRo, (int32_t*)g0::tensor_data5, (TfLiteIntArray*)&g0::tensor_dimension5, 800, },
{ kTfLiteMmapRo, (int32_t*)g0::tensor_data6, (TfLiteIntArray*)&g0::tensor_dimension6, 160, },
{ kTfLiteArenaRw, (int32_t*)(tensor_arena + 144), (TfLiteIntArray*)&g0::tensor_dimension7, 80, },
{ kTfLiteArenaRw, (int32_t*)(tensor_arena + 0), (TfLiteIntArray*)&g0::tensor_dimension8, 40, },
{ kTfLiteArenaRw, (int32_t*)(tensor_arena + 48), (TfLiteIntArray*)&g0::tensor_dimension9, 16, },
{ kTfLiteArenaRw, (int32_t*)(tensor_arena + 0), (TfLiteIntArray*)&g0::tensor_dimension9, 16, },
};

#ifndef TF_LITE_STATIC_MEMORY
TfLiteNode tflNodes[4] = {
{ (TfLiteIntArray*)&g0::inputs0, (TfLiteIntArray*)&g0::outputs0, (TfLiteIntArray*)&g0::inputs0, nullptr, nullptr, const_cast<void*>(static_cast<const void*>(&g0::opdata0)), nullptr, 0, },
{ (TfLiteIntArray*)&g0::inputs1, (TfLiteIntArray*)&g0::outputs1, (TfLiteIntArray*)&g0::inputs1, nullptr, nullptr, const_cast<void*>(static_cast<const void*>(&g0::opdata1)), nullptr, 0, },
{ (TfLiteIntArray*)&g0::inputs2, (TfLiteIntArray*)&g0::outputs2, (TfLiteIntArray*)&g0::inputs2, nullptr, nullptr, const_cast<void*>(static_cast<const void*>(&g0::opdata2)), nullptr, 0, },
{ (TfLiteIntArray*)&g0::inputs3, (TfLiteIntArray*)&g0::outputs3, (TfLiteIntArray*)&g0::inputs3, nullptr, nullptr, const_cast<void*>(static_cast<const void*>(&g0::opdata3)), nullptr, 0, },
};
#else
TfLiteNode tflNodes[4] = {
{ (TfLiteIntArray*)&g0::inputs0, (TfLiteIntArray*)&g0::outputs0, (TfLiteIntArray*)&g0::inputs0, nullptr, const_cast<void*>(static_cast<const void*>(&g0::opdata0)), nullptr, 0, },
{ (TfLiteIntArray*)&g0::inputs1, (TfLiteIntArray*)&g0::outputs1, (TfLiteIntArray*)&g0::inputs1, nullptr, const_cast<void*>(static_cast<const void*>(&g0::opdata1)), nullptr, 0, },
{ (TfLiteIntArray*)&g0::inputs2, (TfLiteIntArray*)&g0::outputs2, (TfLiteIntArray*)&g0::inputs2, nullptr, const_cast<void*>(static_cast<const void*>(&g0::opdata2)), nullptr, 0, },
{ (TfLiteIntArray*)&g0::inputs3, (TfLiteIntArray*)&g0::outputs3, (TfLiteIntArray*)&g0::inputs3, nullptr, const_cast<void*>(static_cast<const void*>(&g0::opdata3)), nullptr, 0, },
};
#endif

used_operators_e used_ops[] =
{OP_FULLY_CONNECTED, OP_FULLY_CONNECTED, OP_FULLY_CONNECTED, OP_SOFTMAX, };


// Indices into tflTensors and tflNodes for subgraphs
const size_t tflTensors_subgraph_index[] = {0, 11, };
const size_t tflNodes_subgraph_index[] = {0, 4, };

// Input/output tensors
static const int in_tensor_indices[] = {
  0, 
};

static const int out_tensor_indices[] = {
  10, 
};


size_t current_subgraph_index = 0;

static void init_tflite_tensor(size_t i, TfLiteTensor *tensor) {
  tensor->type = kTfLiteFloat32;
  tensor->is_variable = false;

#if defined(EI_CLASSIFIER_ALLOCATION_HEAP)
  tensor->allocation_type = tensorData[i].allocation_type;
#else
  tensor->allocation_type = (tensor_arena <= tensorData[i].data && tensorData[i].data < tensor_arena + kTensorArenaSize) ? kTfLiteArenaRw : kTfLiteMmapRo;
#endif
  tensor->bytes = tensorData[i].bytes;
  tensor->dims = tensorData[i].dims;

#if defined(EI_CLASSIFIER_ALLOCATION_HEAP)
  if(tensor->allocation_type == kTfLiteArenaRw){
    uint8_t* start = (uint8_t*) ((uintptr_t)tensorData[i].data + (uintptr_t) tensor_arena);

    tensor->data.data =  start;
  }
  else {
      tensor->data.data = tensorData[i].data;
  }
#else
  tensor->data.data = tensorData[i].data;
#endif // EI_CLASSIFIER_ALLOCATION_HEAP
  tensor->quantization.type = kTfLiteNoQuantization;

}

static void init_tflite_eval_tensor(int i, TfLiteEvalTensor *tensor) {

  tensor->type = kTfLiteFloat32;

  tensor->dims = tensorData[i].dims;

#if defined(EI_CLASSIFIER_ALLOCATION_HEAP)
  auto allocation_type = tensorData[i].allocation_type;
  if(allocation_type == kTfLiteArenaRw) {
    uint8_t* start = (uint8_t*) ((uintptr_t)tensorData[i].data + (uintptr_t) tensor_arena);

    tensor->data.data =  start;
  }
  else {
    tensor->data.data = tensorData[i].data;
  }
#else
  tensor->data.data = tensorData[i].data;
#endif // EI_CLASSIFIER_ALLOCATION_HEAP
}

static void* overflow_buffers[EI_MAX_OVERFLOW_BUFFER_COUNT];
static size_t overflow_buffers_ix = 0;
static void * AllocatePersistentBufferImpl(struct TfLiteContext* ctx,
                                       size_t bytes) {
  void *ptr;
  uint32_t align_bytes = (bytes % 16) ? 16 - (bytes % 16) : 0;

  if (current_location - (bytes + align_bytes) < tensor_boundary) {
    if (overflow_buffers_ix > EI_MAX_OVERFLOW_BUFFER_COUNT - 1) {
      ei_printf("ERR: Failed to allocate persistent buffer of size %d, does not fit in tensor arena and reached EI_MAX_OVERFLOW_BUFFER_COUNT\n",
        (int)bytes);
      return NULL;
    }

    // OK, this will look super weird, but.... we have CMSIS-NN buffers which
    // we cannot calculate beforehand easily.
    ptr = ei_calloc(bytes, 1);
    if (ptr == NULL) {
      ei_printf("ERR: Failed to allocate persistent buffer of size %d\n", (int)bytes);
      return NULL;
    }
    overflow_buffers[overflow_buffers_ix++] = ptr;
    return ptr;
  }

  current_location -= bytes;

  // align to the left aligned boundary of 16 bytes
  current_location -= 15; // for alignment
  current_location += 16 - ((uintptr_t)(current_location) & 15);

  ptr = current_location;
  memset(ptr, 0, bytes);

  return ptr;
}

typedef struct {
  size_t bytes;
  void *ptr;
} scratch_buffer_t;

static scratch_buffer_t scratch_buffers[EI_MAX_SCRATCH_BUFFER_COUNT];
static size_t scratch_buffers_ix = 0;

static TfLiteStatus RequestScratchBufferInArenaImpl(struct TfLiteContext* ctx, size_t bytes,
                                                int* buffer_idx) {
  if (scratch_buffers_ix > EI_MAX_SCRATCH_BUFFER_COUNT - 1) {
    ei_printf("ERR: Failed to allocate scratch buffer of size %d, reached EI_MAX_SCRATCH_BUFFER_COUNT\n",
      (int)bytes);
    return kTfLiteError;
  }

  scratch_buffer_t b;
  b.bytes = bytes;

  b.ptr = AllocatePersistentBufferImpl(ctx, b.bytes);
  if (!b.ptr) {
    ei_printf("ERR: Failed to allocate scratch buffer of size %d\n",
      (int)bytes);
    return kTfLiteError;
  }

  scratch_buffers[scratch_buffers_ix] = b;
  *buffer_idx = scratch_buffers_ix;

  scratch_buffers_ix++;

  return kTfLiteOk;
}

static void* GetScratchBufferImpl(struct TfLiteContext* ctx, int buffer_idx) {
  if (buffer_idx > (int)scratch_buffers_ix) {
    return NULL;
  }
  return scratch_buffers[buffer_idx].ptr;
}

static const uint16_t TENSOR_IX_UNUSED = 0x7FFF;

static void ResetTensors() {
  for (size_t ix = 0; ix < MAX_TFL_TENSOR_COUNT; ix++) {
    tflTensors[ix].index = TENSOR_IX_UNUSED;
  }
  for (size_t ix = 0; ix < MAX_TFL_EVAL_COUNT; ix++) {
    tflEvalTensors[ix].index = TENSOR_IX_UNUSED;
  }
}

static TfLiteTensor* GetTensorImpl(const struct TfLiteContext* context,
                               int tensor_idx) {

  tensor_idx = tflTensors_subgraph_index[current_subgraph_index] + tensor_idx;

  for (size_t ix = 0; ix < MAX_TFL_TENSOR_COUNT; ix++) {
    // already used? OK!
    if (tflTensors[ix].index == tensor_idx) {
      return &tflTensors[ix].tensor;
    }
    // passed all the ones we've used, so end of the list?
    if (tflTensors[ix].index == TENSOR_IX_UNUSED) {
      // init the tensor
      init_tflite_tensor(tensor_idx, &tflTensors[ix].tensor);
      tflTensors[ix].index = tensor_idx;
      return &tflTensors[ix].tensor;
    }
  }

  ei_printf("ERR: GetTensor called beyond MAX_TFL_TENSOR_COUNT (%d)\n", MAX_TFL_TENSOR_COUNT);
  return nullptr;
}

static TfLiteEvalTensor* GetEvalTensorImpl(const struct TfLiteContext* context,
                                       int tensor_idx) {

  tensor_idx = tflTensors_subgraph_index[current_subgraph_index] + tensor_idx;

  for (size_t ix = 0; ix < MAX_TFL_EVAL_COUNT; ix++) {
    // already used? OK!
    if (tflEvalTensors[ix].index == tensor_idx) {
      return &tflEvalTensors[ix].tensor;
    }
    // passed all the ones we've used, so end of the list?
    if (tflEvalTensors[ix].index == TENSOR_IX_UNUSED) {
      // init the tensor
      init_tflite_eval_tensor(tensor_idx, &tflEvalTensors[ix].tensor);
      tflEvalTensors[ix].index = tensor_idx;
      return &tflEvalTensors[ix].tensor;
    }
  }

  ei_printf("ERR: GetTensor called beyond MAX_TFL_EVAL_COUNT (%d)\n", (int)MAX_TFL_EVAL_COUNT);
  return nullptr;
}

class EonMicroContext : public MicroContext {
 public:
 
  EonMicroContext(): MicroContext(nullptr, nullptr, nullptr) { }

  void* AllocatePersistentBuffer(size_t bytes) {
    return AllocatePersistentBufferImpl(nullptr, bytes);
  }

  TfLiteStatus RequestScratchBufferInArena(size_t bytes,
                                           int* buffer_index) {
  return RequestScratchBufferInArenaImpl(nullptr, bytes, buffer_index);
  }

  void* GetScratchBuffer(int buffer_index) {
    return GetScratchBufferImpl(nullptr, buffer_index);
  }
 
  TfLiteTensor* AllocateTempTfLiteTensor(int tensor_index) {
    return GetTensorImpl(nullptr, tensor_index);
  }

  void DeallocateTempTfLiteTensor(TfLiteTensor* tensor) {
    return;
  }

  bool IsAllTempTfLiteTensorDeallocated() {
    return true;
  }

  TfLiteEvalTensor* GetEvalTensor(int tensor_index) {
    return GetEvalTensorImpl(nullptr, tensor_index);
  }

};


} // namespace

TfLiteStatus tflite_learn_934763_5_init( void*(*alloc_fnc)(size_t,size_t) ) {
#ifdef EI_CLASSIFIER_ALLOCATION_HEAP
  tensor_arena = (uint8_t*) alloc_fnc(16, kTensorArenaSize);
  if (!tensor_arena) {
    ei_printf("ERR: failed to allocate tensor arena\n");
    return kTfLiteError;
  }
#else
  memset(tensor_arena, 0, kTensorArenaSize);
#endif
  tensor_boundary = tensor_arena;
  current_location = tensor_arena + kTensorArenaSize;

  EonMicroContext micro_context_;
  
  // Set microcontext as the context ptr
  ctx.impl_ = static_cast<void*>(&micro_context_);
  // Setup tflitecontext functions
  ctx.AllocatePersistentBuffer = &AllocatePersistentBufferImpl;
  ctx.RequestScratchBufferInArena = &RequestScratchBufferInArenaImpl;
  ctx.GetScratchBuffer = &GetScratchBufferImpl;
  ctx.GetTensor = &GetTensorImpl;
  ctx.GetEvalTensor = &GetEvalTensorImpl;
  ctx.ReportError = &MicroContextReportOpError;

  ctx.tensors_size = 11;
  for (size_t i = 0; i < 11; ++i) {
    TfLiteTensor tensor;
    init_tflite_tensor(i, &tensor);
    if (tensor.allocation_type == kTfLiteArenaRw) {
      auto data_end_ptr = (uint8_t*)tensor.data.data + tensorData[i].bytes;
      if (data_end_ptr > tensor_boundary) {
        tensor_boundary = data_end_ptr;
      }
    }
  }

  if (tensor_boundary > current_location /* end of arena size */) {
    ei_printf("ERR: tensor arena is too small, does not fit model - even without scratch buffers\n");
    return kTfLiteError;
  }

  registrations[OP_FULLY_CONNECTED] = Register_FULLY_CONNECTED();
  registrations[OP_SOFTMAX] = Register_SOFTMAX();

  for (size_t g = 0; g < 1; ++g) {
    current_subgraph_index = g;
    for(size_t i = tflNodes_subgraph_index[g]; i < tflNodes_subgraph_index[g+1]; ++i) {
      if (registrations[used_ops[i]].init) {
        tflNodes[i].user_data = registrations[used_ops[i]].init(&ctx, (const char*)tflNodes[i].builtin_data, 0);
      }
    }
  }
  current_subgraph_index = 0;

  for(size_t g = 0; g < 1; ++g) {
    current_subgraph_index = g;
    for(size_t i = tflNodes_subgraph_index[g]; i < tflNodes_subgraph_index[g+1]; ++i) {
      if (registrations[used_ops[i]].prepare) {
        ResetTensors();
        TfLiteStatus status = registrations[used_ops[i]].prepare(&ctx, &tflNodes[i]);
        if (status != kTfLiteOk) {
          return status;
        }
      }
    }
  }
  current_subgraph_index = 0;

  return kTfLiteOk;
}

TfLiteStatus tflite_learn_934763_5_input(int index, TfLiteTensor *tensor) {
  init_tflite_tensor(in_tensor_indices[index], tensor);
  return kTfLiteOk;
}

TfLiteStatus tflite_learn_934763_5_output(int index, TfLiteTensor *tensor) {
  init_tflite_tensor(out_tensor_indices[index], tensor);
  return kTfLiteOk;
}

TfLiteStatus tflite_learn_934763_5_invoke() {
  for (size_t i = 0; i < 4; ++i) {
    ResetTensors();

    TfLiteStatus status = registrations[used_ops[i]].invoke(&ctx, &tflNodes[i]);

#if EI_CLASSIFIER_PRINT_STATE
    ei_printf("layer %lu\n", i);
    ei_printf("    inputs:\n");
    for (size_t ix = 0; ix < tflNodes[i].inputs->size; ix++) {
      auto d = tensorData[tflNodes[i].inputs->data[ix]];

      size_t data_ptr = (size_t)d.data;

      if (d.allocation_type == kTfLiteArenaRw) {
        data_ptr = (size_t)tensor_arena + data_ptr;
      }

      if (d.type == TfLiteType::kTfLiteInt8) {
        int8_t* data = (int8_t*)data_ptr;
        ei_printf("        %lu (%zu bytes, ptr=%p, alloc_type=%d, type=%d): ", ix, d.bytes, data, (int)d.allocation_type, (int)d.type);
        for (size_t jx = 0; jx < d.bytes; jx++) {
          ei_printf("%d ", data[jx]);
        }
      }
      else {
        float* data = (float*)data_ptr;
        ei_printf("        %lu (%zu bytes, ptr=%p, alloc_type=%d, type=%d): ", ix, d.bytes, data, (int)d.allocation_type, (int)d.type);
        for (size_t jx = 0; jx < d.bytes / 4; jx++) {
          ei_printf("%f ", data[jx]);
        }
      }
      ei_printf("\n");
    }
    ei_printf("\n");

    ei_printf("    outputs:\n");
    for (size_t ix = 0; ix < tflNodes[i].outputs->size; ix++) {
      auto d = tensorData[tflNodes[i].outputs->data[ix]];

      size_t data_ptr = (size_t)d.data;

      if (d.allocation_type == kTfLiteArenaRw) {
        data_ptr = (size_t)tensor_arena + data_ptr;
      }

      if (d.type == TfLiteType::kTfLiteInt8) {
        int8_t* data = (int8_t*)data_ptr;
        ei_printf("        %lu (%zu bytes, ptr=%p, alloc_type=%d, type=%d): ", ix, d.bytes, data, (int)d.allocation_type, (int)d.type);
        for (size_t jx = 0; jx < d.bytes; jx++) {
          ei_printf("%d ", data[jx]);
        }
      }
      else {
        float* data = (float*)data_ptr;
        ei_printf("        %lu (%zu bytes, ptr=%p, alloc_type=%d, type=%d): ", ix, d.bytes, data, (int)d.allocation_type, (int)d.type);
        for (size_t jx = 0; jx < d.bytes / 4; jx++) {
          ei_printf("%f ", data[jx]);
        }
      }
      ei_printf("\n");
    }
    ei_printf("\n");
#endif // EI_CLASSIFIER_PRINT_STATE

    if (status != kTfLiteOk) {
      return status;
    }
  }
  return kTfLiteOk;
}

TfLiteStatus tflite_learn_934763_5_reset( void (*free_fnc)(void* ptr) ) {
#ifdef EI_CLASSIFIER_ALLOCATION_HEAP
  free_fnc(tensor_arena);
#endif

  // scratch buffers are allocated within the arena, so just reset the counter so memory can be reused
  scratch_buffers_ix = 0;

  // overflow buffers are on the heap, so free them first
  for (size_t ix = 0; ix < overflow_buffers_ix; ix++) {
    ei_free(overflow_buffers[ix]);
  }
  overflow_buffers_ix = 0;
  return kTfLiteOk;
}
